{"learner":{"attributes":{},"feature_names":["dst_port","duration","fwd_packets_count","bwd_packets_count","fwd_total_payload_bytes","bwd_total_payload_bytes","fwd_payload_bytes_max","fwd_payload_bytes_min","fwd_payload_bytes_mean","fwd_payload_bytes_std","bwd_payload_bytes_max","bwd_payload_bytes_min","bwd_payload_bytes_mean","bwd_payload_bytes_std","payload_bytes_min","payload_bytes_max","payload_bytes_mean","payload_bytes_std","fwd_avg_segment_size","bwd_avg_segment_size","fwd_total_header_bytes","bwd_total_header_bytes","bytes_rate","packets_rate","fwd_packets_rate","bwd_packets_rate","down_up_rate","packets_IAT_mean","packet_IAT_std","packet_IAT_max","packet_IAT_min","fwd_packets_IAT_total","fwd_packets_IAT_mean","fwd_packets_IAT_std","fwd_packets_IAT_max","fwd_packets_IAT_min","bwd_packets_IAT_total","bwd_packets_IAT_mean","bwd_packets_IAT_std","bwd_packets_IAT_max","bwd_packets_IAT_min","subflow_fwd_packets","subflow_fwd_bytes","subflow_bwd_packets","subflow_bwd_bytes","active_mean","active_std","active_max","active_min","idle_mean","idle_std","idle_max","idle_min","fin_flag_counts","syn_flag_counts","rst_flag_counts","ack_flag_counts","psh_flag_counts","fwd_ack_flag_counts","bwd_rst_flag_counts"],"feature_types":[],"gradient_booster":{"model":{"gbtree_model_param":{"num_parallel_tree":"1","num_trees":"15"},"iteration_indptr":[0,1,2,3,4,5,6,7,8,9,10,11,12,13,14,15],"tree_info":[0,0,0,0,0,0,0,0,0,0,0,0,0,0,0],"trees":[{"base_weights":[9.1244324E-8,1.97533E0,-1.205731E0,-1.954604E-1,1.9972384E0,-1.9972013E0,1.1921966E0,1.9977693E-1,-6.676122E-2,-2.0010538E-1,-1.5519782E0,-1.9984572E-1,1.9901855E0,-1.9740932E-1,9.2150706E-1,1.9974878E-1,-1.6377567E-1,1.7984699E-1,-1.501277E-1],"categories":[],"categories_nodes":[],"categories_segments":[],"categories_sizes":[],"default_left":[0,0,0,0,0,0,0,0,0,0,0,0,0,0,0,0,0,0,0],"id":0,"left_children":[1,3,5,-1,7,9,11,-1,-1,-1,13,-1,15,-1,17,-1,-1,-1,-1],"loss_changes":[4.759858E4,6.560996E2,2.355516E4,0E0,1.19921875E1,1.2902344E1,7.8466143E3,0E0,0E0,0E0,9.004512E1,0E0,6.856152E1,0E0,3.0320974E1,0E0,0E0,0E0,0E0],"parents":[2147483647,0,0,1,1,2,2,4,4,5,5,6,6,10,10,12,12,14,14],"right_children":[2,4,6,-1,8,10,12,-1,-1,-1,14,-1,16,-1,18,-1,-1,-1,-1],"split_conditions":[3.403202E-4,5.457741E-6,9.9998534E-1,-1.954604E-1,9.742501E-4,7.076515E-3,1.0600828E-5,1.9977693E-1,-6.676122E-2,-2.0010538E-1,1.7226346E-5,-1.9984572E-1,3.5361766E-11,-1.9740932E-1,1.9876632E-5,1.9974878E-1,-1.6377567E-1,1.7984699E-1,-1.501277E-1],"split_indices":[0,56,40,0,28,25,21,0,0,0,21,0,1,0,3,0,0,0,0],"split_type":[0,0,0,0,0,0,0,0,0,0,0,0,0,0,0,0,0,0,0],"sum_hessian":[1.9982986E4,7.5739946E3,1.2408991E4,4.149997E1,7.5324946E3,9.329743E3,3.0792478E3,7.5312446E3,1.249999E0,9.246243E3,8.349994E1,6.157496E2,2.4634983E3,7.149995E1,1.1999991E1,2.4589983E3,4.4999967E0,8.999993E0,2.9999979E0],"tree_param":{"num_deleted":"0","num_feature":"60","num_nodes":"19","size_leaf_vector":"1"}},{"base_weights":[-1.3653646E-5,1.7965559E0,-1.0963606E0,-1.7805475E-1,1.8165148E0,-1.8159089E0,1.0841808E0,1.8170093E0,-6.3090555E-2,-1.8194029E-1,-1.4121233E0,-1.817271E-1,1.8100781E0,1.8171434E-1,5.5823755E-2,-1.7968796E-1,8.377369E-1,1.816798E-1,-1.5121363E-1,1.6492175E-1,-1.3946237E-1],"categories":[],"categories_nodes":[],"categories_segments":[],"categories_sizes":[],"default_left":[0,0,0,0,0,0,0,0,0,0,0,0,0,0,0,0,0,0,0,0,0],"id":1,"left_children":[1,3,5,-1,7,9,11,13,-1,-1,15,-1,17,-1,-1,-1,19,-1,-1,-1,-1],"loss_changes":[3.8973164E4,5.386035E2,1.928193E4,0E0,1.0171875E1,1.046875E1,6.425877E3,2.4609375E-1,0E0,0E0,7.3985565E1,0E0,5.721289E1,0E0,0E0,0E0,2.5686333E1,0E0,0E0,0E0,0E0],"parents":[2147483647,0,0,1,1,2,2,4,4,5,5,6,6,7,7,10,10,12,12,16,16],"right_children":[2,4,6,-1,8,10,12,14,-1,-1,16,-1,18,-1,-1,-1,20,-1,-1,-1,-1],"split_conditions":[3.403202E-4,5.457741E-6,9.9998534E-1,-1.7805475E-1,9.742501E-4,7.076515E-3,1.0600828E-5,9.9998754E-1,-6.3090555E-2,-1.8194029E-1,1.7226346E-5,-1.817271E-1,3.5361766E-11,1.8171434E-1,5.5823755E-2,-1.7968796E-1,1.9876632E-5,1.816798E-1,-1.5121363E-1,1.6492175E-1,-1.3946237E-1],"split_indices":[0,56,40,0,28,25,21,27,0,0,21,0,1,0,0,0,3,0,0,0,0],"split_type":[0,0,0,0,0,0,0,0,0,0,0,0,0,0,0,0,0,0,0,0,0],"sum_hessian":[1.9784713E4,7.497696E3,1.2287017E4,4.1112923E1,7.456583E3,9.23858E3,3.048436E3,7.4553345E3,1.2486782E0,9.155851E3,8.2729485E1,6.097456E2,2.4386904E3,7.4540967E3,1.2373998E0,7.08197E1,1.1909784E1,2.43422E3,4.4705772E0,8.926247E0,2.983538E0],"tree_param":{"num_deleted":"0","num_feature":"60","num_nodes":"21","size_leaf_vector":"1"}},{"base_weights":[-2.6340727E-5,1.662215E0,-1.0142108E0,-1.6483742E-1,1.6807176E0,-1.6797519E0,1.0029951E0,1.6811903E0,-5.9692707E-2,-1.682989E-1,-1.305787E0,-1.6811194E-1,1.6747099E0,1.6813123E-1,5.2931845E-2,-1.6629305E-1,7.709021E-1,1.6810153E-1,-1.4099632E-1,1.531819E-1,-1.305574E-1],"categories":[],"categories_nodes":[],"categories_segments":[],"categories_sizes":[],"default_left":[0,0,0,0,0,0,0,0,0,0,0,0,0,0,0,0,0,0,0,0,0],"id":2,"left_children":[1,3,5,-1,7,9,11,13,-1,-1,15,-1,17,-1,-1,-1,19,-1,-1,-1,-1],"loss_changes":[3.2493533E4,4.5016016E2,1.6072939E4,0E0,8.824219E0,8.699219E0,5.3582812E3,1.3085938E-1,0E0,0E0,6.1886475E1,0E0,4.8589844E1,0E0,0E0,0E0,2.2025E1,0E0,0E0,0E0,0E0],"parents":[2147483647,0,0,1,1,2,2,4,4,5,5,6,6,7,7,10,10,12,12,16,16],"right_children":[2,4,6,-1,8,10,12,14,-1,-1,16,-1,18,-1,-1,-1,20,-1,-1,-1,-1],"split_conditions":[3.403202E-4,5.457741E-6,9.9998534E-1,-1.6483742E-1,9.742501E-4,7.076515E-3,1.0600828E-5,9.9998754E-1,-5.9692707E-2,-1.682989E-1,1.7226346E-5,-1.6811194E-1,3.5361766E-11,1.6813123E-1,5.2931845E-2,-1.6629305E-1,1.9876632E-5,1.6810153E-1,-1.4099632E-1,1.531819E-1,-1.305574E-1],"split_indices":[0,56,40,0,28,25,21,27,0,0,21,0,1,0,0,0,3,0,0,0,0],"split_type":[0,0,0,0,0,0,0,0,0,0,0,0,0,0,0,0,0,0,0,0,0],"sum_hessian":[1.9272623E4,7.3027793E3,1.1969844E4,4.0098114E1,7.262681E3,9.000468E3,2.9693757E3,7.261436E3,1.2448821E0,8.919755E3,8.071293E1,5.9406E2,2.3753157E3,7.2602065E3,1.2295372E0,6.903902E1,1.1673908E1,2.3709243E3,4.3913636E0,8.73522E0,2.9386888E0],"tree_param":{"num_deleted":"0","num_feature":"60","num_nodes":"21","size_leaf_vector":"1"}},{"base_weights":[-4.0203635E-5,1.557863E0,-9.50424E-1,-1.5447356E-1,1.5752416E0,-1.5740365E0,9.3991995E-1,1.5757021E0,-5.6536973E-2,-1.5770833E-1,-1.2222767E0,-1.5753591E-1,1.5695459E0,1.5759608E-1,7.905107E-2,-1.5583318E-1,7.16091E-1,1.5755491E-1,-1.3250028E-1,1.4369112E-1,-1.2298944E-1],"categories":[],"categories_nodes":[],"categories_segments":[],"categories_sizes":[],"default_left":[0,0,0,0,0,0,0,0,0,0,0,0,0,0,0,0,0,0,0,0,0],"id":3,"left_children":[1,3,5,-1,7,9,11,13,-1,-1,15,-1,17,-1,-1,-1,19,-1,-1,-1,-1],"loss_changes":[2.7461898E4,3.8135938E2,1.3581797E4,0E0,7.779297E0,7.357422E0,4.5291055E3,1.71875E-1,0E0,0E0,5.2468567E1,0E0,4.1819824E1,0E0,0E0,0E0,1.9067198E1,0E0,0E0,0E0,0E0],"parents":[2147483647,0,0,1,1,2,2,4,4,5,5,6,6,7,7,10,10,12,12,16,16],"right_children":[2,4,6,-1,8,10,12,14,-1,-1,16,-1,18,-1,-1,-1,20,-1,-1,-1,-1],"split_conditions":[3.403202E-4,5.457741E-6,9.9998534E-1,-1.5447356E-1,9.742501E-4,7.076515E-3,1.0600828E-5,9.9998534E-1,-5.6536973E-2,-1.5770833E-1,1.7226346E-5,-1.5753591E-1,3.5361766E-11,1.5759608E-1,7.905107E-2,-1.5583318E-1,1.9876632E-5,1.5755491E-1,-1.3250028E-1,1.4369112E-1,-1.2298944E-1],"split_indices":[0,56,40,0,28,25,21,27,0,0,21,0,1,0,0,0,3,0,0,0,0],"split_type":[0,0,0,0,0,0,0,0,0,0,0,0,0,0,0,0,0,0,0,0,0],"sum_hessian":[1.8545744E4,7.026695E3,1.1519049E4,3.8649834E1,6.988045E3,8.661758E3,2.8572915E3,6.9868057E3,1.239038E0,8.583923E3,7.78345E1,5.717435E2,2.285548E3,6.983498E3,3.3077257E0,6.650123E1,1.1333271E1,2.2812725E3,4.2755876E0,8.460854E0,2.8724167E0],"tree_param":{"num_deleted":"0","num_feature":"60","num_nodes":"21","size_leaf_vector":"1"}},{"base_weights":[-5.314675E-5,1.4747515E0,-8.996361E-1,-1.4614221E-1,1.4912416E0,-1.4898673E0,8.8966966E-1,1.491697E0,-5.3597342E-2,-1.4927699E-1,-1.1550163E0,-1.4911163E-1,1.4857744E0,1.4919512E-1,7.412941E-2,-1.4745818E-1,6.700949E-1,1.4915551E-1,-1.2530035E-1,1.3584317E-1,-1.1645706E-1],"categories":[],"categories_nodes":[],"categories_segments":[],"categories_sizes":[],"default_left":[0,0,0,0,0,0,0,0,0,0,0,0,0,0,0,0,0,0,0,0,0],"id":4,"left_children":[1,3,5,-1,7,9,11,13,-1,-1,15,-1,17,-1,-1,-1,19,-1,-1,-1,-1],"loss_changes":[2.3455709E4,3.2649512E2,1.1598776E4,0E0,6.9472656E0,6.3007812E0,3.8688074E3,1.6601562E-1,0E0,0E0,4.4954437E1,0E0,3.6373535E1,0E0,0E0,0E0,1.6635197E1,0E0,0E0,0E0,0E0],"parents":[2147483647,0,0,1,1,2,2,4,4,5,5,6,6,7,7,10,10,12,12,16,16],"right_children":[2,4,6,-1,8,10,12,14,-1,-1,16,-1,18,-1,-1,-1,20,-1,-1,-1,-1],"split_conditions":[3.403202E-4,5.457741E-6,9.9998534E-1,-1.4614221E-1,9.742501E-4,7.076515E-3,1.0600828E-5,9.9998534E-1,-5.3597342E-2,-1.4927699E-1,1.7226346E-5,-1.4911163E-1,3.5361766E-11,1.4919512E-1,7.412941E-2,-1.4745818E-1,1.9876632E-5,1.4915551E-1,-1.2530035E-1,1.3584317E-1,-1.1645706E-1],"split_indices":[0,56,40,0,28,25,21,27,0,0,21,0,1,0,0,0,3,0,0,0,0],"split_type":[0,0,0,0,0,0,0,0,0,0,0,0,0,0,0,0,0,0,0,0,0],"sum_hessian":[1.7677617E4,6.697267E3,1.0980351E4,3.691373E1,6.6603535E3,8.256859E3,2.7234907E3,6.659122E3,1.2315211E0,8.182477E3,7.438253E1,5.4506226E2,2.1784285E3,6.6558774E3,3.244303E0,6.3462673E1,1.0919861E1,2.1742947E3,4.1338353E0,8.129413E0,2.7904482E0],"tree_param":{"num_deleted":"0","num_feature":"60","num_nodes":"21","size_leaf_vector":"1"}},{"base_weights":[-6.6860666E-5,1.4072471E0,-8.583969E-1,-1.3930888E-1,1.4230223E0,-1.4215238E0,8.4884274E-1,1.4234778E0,-5.0851714E-2,-1.4243153E-1,-1.099725E0,-1.4226817E-1,1.4177243E0,1.4237343E-1,6.9614254E-2,-1.4061747E-1,6.3072854E-1,1.4233418E-1,-1.19096875E-1,1.292274E-1,-1.1074033E-1],"categories":[],"categories_nodes":[],"categories_segments":[],"categories_sizes":[],"default_left":[0,0,0,0,0,0,0,0,0,0,0,0,0,0,0,0,0,0,0,0,0],"id":5,"left_children":[1,3,5,-1,7,9,11,13,-1,-1,15,-1,17,-1,-1,-1,19,-1,-1,-1,-1],"loss_changes":[2.020297E4,2.818916E2,9.98901E3,0E0,6.2685547E0,5.451172E0,3.332631E3,1.8457031E-1,0E0,0E0,3.8842514E1,0E0,3.1908203E1,0E0,0E0,0E0,1.4606787E1,0E0,0E0,0E0,0E0],"parents":[2147483647,0,0,1,1,2,2,4,4,5,5,6,6,7,7,10,10,12,12,16,16],"right_children":[2,4,6,-1,8,10,12,14,-1,-1,16,-1,18,-1,-1,-1,20,-1,-1,-1,-1],"split_conditions":[3.403202E-4,5.457741E-6,9.9998534E-1,-1.3930888E-1,9.742501E-4,7.076515E-3,1.0600828E-5,9.9998534E-1,-5.0851714E-2,-1.4243153E-1,1.7226346E-5,-1.4226817E-1,3.5361766E-11,1.4237343E-1,6.9614254E-2,-1.4061747E-1,1.9876632E-5,1.4233418E-1,-1.19096875E-1,1.292274E-1,-1.1074033E-1],"split_indices":[0,56,40,0,28,25,21,27,0,0,21,0,1,0,0,0,3,0,0,0,0],"split_type":[0,0,0,0,0,0,0,0,0,0,0,0,0,0,0,0,0,0,0,0,0],"sum_hessian":[1.6723146E4,6.3352544E3,1.0387893E4,3.4999413E1,6.300255E3,7.8114736E3,2.5764192E3,6.299032E3,1.2226585E0,7.7408994E3,7.057424E1,5.157092E2,2.06071E3,6.2958545E3,3.1776066E0,6.0115635E1,1.0458609E1,2.0567354E3,3.974513E0,7.7611675E0,2.6974409E0],"tree_param":{"num_deleted":"0","num_feature":"60","num_nodes":"21","size_leaf_vector":"1"}},{"base_weights":[-8.146884E-5,1.3515528E0,-8.243814E-1,-1.3360974E-1,1.3667448E0,-1.3651507E0,8.15145E-1,1.367205E0,-4.8281115E-2,-1.3678563E-1,-1.0534885E0,-1.3662048E-1,1.3615706E0,1.3674687E-1,6.544735E-2,-1.3493773E-1,5.9645224E-1,1.3670708E-1,-1.1367285E-1,1.2355552E-1,-1.0567552E-1],"categories":[],"categories_nodes":[],"categories_segments":[],"categories_sizes":[],"default_left":[0,0,0,0,0,0,0,0,0,0,0,0,0,0,0,0,0,0,0,0,0],"id":6,"left_children":[1,3,5,-1,7,9,11,13,-1,-1,15,-1,17,-1,-1,-1,19,-1,-1,-1,-1],"loss_changes":[1.7520398E4,2.4506055E2,8.661619E3,0E0,5.703125E0,4.7539062E0,2.890398E3,2.1777344E-1,0E0,0E0,3.3793915E1,0E0,2.819043E1,0E0,0E0,0E0,1.2895014E1,0E0,0E0,0E0,0E0],"parents":[2147483647,0,0,1,1,2,2,4,4,5,5,6,6,7,7,10,10,12,12,16,16],"right_children":[2,4,6,-1,8,10,12,14,-1,-1,16,-1,18,-1,-1,-1,20,-1,-1,-1,-1],"split_conditions":[3.403202E-4,5.457741E-6,9.9998534E-1,-1.3360974E-1,9.742501E-4,7.076515E-3,1.0600828E-5,9.9998534E-1,-4.8281115E-2,-1.3678563E-1,1.7226346E-5,-1.3662048E-1,3.5361766E-11,1.3674687E-1,6.544735E-2,-1.3493773E-1,1.9876632E-5,1.3670708E-1,-1.1367285E-1,1.2355552E-1,-1.0567552E-1],"split_indices":[0,56,40,0,28,25,21,27,0,0,21,0,1,0,0,0,3,0,0,0,0],"split_type":[0,0,0,0,0,0,0,0,0,0,0,0,0,0,0,0,0,0,0,0,0],"sum_hessian":[1.5723319E4,5.9561562E3,9.767163E3,3.298922E1,5.923167E3,7.344782E3,2.422381E3,5.921954E3,1.2127326E0,7.278209E3,6.657303E1,4.8494873E2,1.9374324E3,5.918845E3,3.1091866E0,5.6604195E1,9.968832E0,1.933628E3,3.8042383E0,7.3716893E0,2.5971427E0],"tree_param":{"num_deleted":"0","num_feature":"60","num_nodes":"21","size_leaf_vector":"1"}},{"base_weights":[-9.675064E-5,1.3050103E0,-7.9596233E-1,-1.287879E-1,1.3197218E0,-1.3180506E0,7.8697073E-1,1.3201904E0,-4.5869227E-2,-1.3206902E-1,-1.014249E0,-1.3189913E-1,1.3146356E0,1.320466E-1,6.1582636E-2,-1.3015638E-1,5.661514E-1,1.3200556E-1,-1.0886746E-1,1.186189E-1,-1.0113853E-1],"categories":[],"categories_nodes":[],"categories_segments":[],"categories_sizes":[],"default_left":[0,0,0,0,0,0,0,0,0,0,0,0,0,0,0,0,0,0,0,0,0],"id":7,"left_children":[1,3,5,-1,7,9,11,13,-1,-1,15,-1,17,-1,-1,-1,19,-1,-1,-1,-1],"loss_changes":[1.5279701E4,2.1426172E2,7.553025E3,0E0,5.223633E0,4.1708984E0,2.5209817E3,2.6367188E-1,0E0,0E0,2.957093E1,0E0,2.5056885E1,0E0,0E0,0E0,1.1436214E1,0E0,0E0,0E0,0E0],"parents":[2147483647,0,0,1,1,2,2,4,4,5,5,6,6,7,7,10,10,12,12,16,16],"right_children":[2,4,6,-1,8,10,12,14,-1,-1,16,-1,18,-1,-1,-1,20,-1,-1,-1,-1],"split_conditions":[3.403202E-4,5.457741E-6,9.9998534E-1,-1.287879E-1,9.742501E-4,7.076515E-3,1.0600828E-5,9.9998534E-1,-4.5869227E-2,-1.3206902E-1,1.7226346E-5,-1.3189913E-1,3.5361766E-11,1.320466E-1,6.1582636E-2,-1.3015638E-1,1.9876632E-5,1.3200556E-1,-1.0886746E-1,1.186189E-1,-1.0113853E-1],"split_indices":[0,56,40,0,28,25,21,27,0,0,21,0,1,0,0,0,3,0,0,0,0],"split_type":[0,0,0,0,0,0,0,0,0,0,0,0,0,0,0,0,0,0,0,0,0],"sum_hessian":[1.4708553E4,5.571477E3,9.137075E3,3.0944635E1,5.5405327E3,6.8710195E3,2.2660554E3,5.5393306E3,1.2019868E0,6.8085186E3,6.2501007E1,4.5371902E2,1.8123365E3,5.53629E3,3.0402591E0,5.3035633E1,9.465376E0,1.8087084E3,3.6281724E0,6.972837E0,2.4925394E0],"tree_param":{"num_deleted":"0","num_feature":"60","num_nodes":"21","size_leaf_vector":"1"}},{"base_weights":[-1.1330002E-4,1.2657005E0,-7.7196574E-1,-1.2465643E-1,1.2800132E0,-1.2782776E0,7.6316E-1,1.2804936E0,-4.3601915E-2,-1.2808667E-1,-9.805094E-1,-1.2790953E-1,1.2749858E0,1.280785E-1,5.798335E-2,-1.2608296E-1,5.390004E-1,1.2803559E-1,-1.0455932E-1,1.1426282E-1,-9.703401E-2],"categories":[],"categories_nodes":[],"categories_segments":[],"categories_sizes":[],"default_left":[0,0,0,0,0,0,0,0,0,0,0,0,0,0,0,0,0,0,0,0,0],"id":8,"left_children":[1,3,5,-1,7,9,11,13,-1,-1,15,-1,17,-1,-1,-1,19,-1,-1,-1,-1],"loss_changes":[1.3388293E4,1.8823926E2,6.617347E3,0E0,4.8125E0,3.6796875E0,2.2091313E3,3.1054688E-1,0E0,0E0,2.6001633E1,0E0,2.238794E1,0E0,0E0,0E0,1.0182656E1,0E0,0E0,0E0,0E0],"parents":[2147483647,0,0,1,1,2,2,4,4,5,5,6,6,7,7,10,10,12,12,16,16],"right_children":[2,4,6,-1,8,10,12,14,-1,-1,16,-1,18,-1,-1,-1,20,-1,-1,-1,-1],"split_conditions":[3.403202E-4,5.457741E-6,9.9998534E-1,-1.2465643E-1,9.742501E-4,7.076515E-3,1.0600828E-5,9.9998534E-1,-4.3601915E-2,-1.2808667E-1,1.7226346E-5,-1.2790953E-1,3.5361766E-11,1.280785E-1,5.798335E-2,-1.2608296E-1,1.9876632E-5,1.2803559E-1,-1.0455932E-1,1.1426282E-1,-9.703401E-2],"split_indices":[0,56,40,0,28,25,21,27,0,0,21,0,1,0,0,0,3,0,0,0,0],"split_type":[0,0,0,0,0,0,0,0,0,0,0,0,0,0,0,0,0,0,0,0,0],"sum_hessian":[1.3701172E4,5.189657E3,8.511515E3,2.8911053E1,5.160746E3,6.400637E3,2.110877E3,5.1595557E3,1.190629E0,6.342189E3,5.8448494E1,4.227094E2,1.6881675E3,5.1565835E3,2.9717658E0,4.948897E1,8.959521E0,1.6847173E3,3.4502952E0,6.5735397E0,2.3859818E0],"tree_param":{"num_deleted":"0","num_feature":"60","num_nodes":"21","size_leaf_vector":"1"}},{"base_weights":[-1.306223E-4,1.2322015E0,-7.515218E-1,-1.2107571E-1,1.246182E0,-1.2443895E0,7.4285334E-1,1.2466774E0,-4.1466914E-2,-1.24694146E-1,-9.5115155E-1,-1.2450749E-1,1.2411885E0,1.2469883E-1,5.4619815E-2,-1.2257568E-1,5.143769E-1,1.2465347E-1,-1.0065526E-1,1.1037012E-1,-9.3287624E-2],"categories":[],"categories_nodes":[],"categories_segments":[],"categories_sizes":[],"default_left":[0,0,0,0,0,0,0,0,0,0,0,0,0,0,0,0,0,0,0,0,0],"id":9,"left_children":[1,3,5,-1,7,9,11,13,-1,-1,15,-1,17,-1,-1,-1,19,-1,-1,-1,-1],"loss_changes":[1.1777598E4,1.660542E2,5.8206094E3,0E0,4.4589844E0,3.2607422E0,1.943548E3,3.618164E-1,0E0,0E0,2.2958439E1,0E0,2.0095947E1,0E0,0E0,0E0,9.097825E0,0E0,0E0,0E0,0E0],"parents":[2147483647,0,0,1,1,2,2,4,4,5,5,6,6,7,7,10,10,12,12,16,16],"right_children":[2,4,6,-1,8,10,12,14,-1,-1,16,-1,18,-1,-1,-1,20,-1,-1,-1,-1],"split_conditions":[3.403202E-4,5.457741E-6,9.9998534E-1,-1.2107571E-1,9.742501E-4,7.076515E-3,1.0600828E-5,9.9998534E-1,-4.1466914E-2,-1.24694146E-1,1.7226346E-5,-1.2450749E-1,3.5361766E-11,1.2469883E-1,5.4619815E-2,-1.2257568E-1,1.9876632E-5,1.2465347E-1,-1.0065526E-1,1.1037012E-1,-9.3287624E-2],"split_indices":[0,56,40,0,28,25,21,27,0,0,21,0,1,0,0,0,3,0,0,0,0],"split_type":[0,0,0,0,0,0,0,0,0,0,0,0,0,0,0,0,0,0,0,0,0],"sum_hessian":[1.2717287E4,4.816789E3,7.900498E3,2.6921427E1,4.7898677E3,5.9411753E3,1.9593229E3,4.788689E3,1.1788366E0,5.8866943E3,5.4481167E1,3.9241727E2,1.5669056E3,4.7857847E3,2.9044256E0,4.6021446E1,8.459719E0,1.563632E3,3.2736313E0,6.180421E0,2.2792976E0],"tree_param":{"num_deleted":"0","num_feature":"60","num_nodes":"21","size_leaf_vector":"1"}},{"base_weights":[-1.4947137E-4,1.2034361E0,-7.339719E-1,-1.17939174E-1,1.2171392E0,-1.215295E0,7.254001E-1,1.3640389E-1,1.2180648E-1,-1.21782064E-1,-9.253222E-1,-1.2158382E-1,1.2121586E0,-8.957113E-2,7.4366696E-2,-1.1952656E-1,4.918038E-1,1.2175038E-1,-9.7082935E-2,1.0685044E-1,-8.984094E-2],"categories":[],"categories_nodes":[],"categories_segments":[],"categories_sizes":[],"default_left":[0,0,0,0,0,0,0,0,0,0,0,0,0,0,0,0,0,0,0,0,0],"id":10,"left_children":[1,3,5,-1,7,9,11,13,-1,-1,15,-1,17,-1,-1,-1,19,-1,-1,-1,-1],"loss_changes":[1.0395675E4,1.470039E2,5.1370977E3,0E0,4.267578E0,2.900879E0,1.715677E3,3.7493224E0,0E0,0E0,2.034457E1,0E0,1.8112549E1,0E0,0E0,0E0,8.153271E0,0E0,0E0,0E0,0E0],"parents":[2147483647,0,0,1,1,2,2,4,4,5,5,6,6,7,7,10,10,12,12,16,16],"right_children":[2,4,6,-1,8,10,12,14,-1,-1,16,-1,18,-1,-1,-1,20,-1,-1,-1,-1],"split_conditions":[3.403202E-4,5.457741E-6,9.9998534E-1,-1.17939174E-1,7.206785E-6,7.076515E-3,1.0600828E-5,9.999854E-1,1.2180648E-1,-1.21782064E-1,1.7226346E-5,-1.2158382E-1,3.5361766E-11,-8.957113E-2,7.4366696E-2,-1.1952656E-1,1.9876632E-5,1.2175038E-1,-9.7082935E-2,1.0685044E-1,-8.984094E-2],"split_indices":[0,56,40,0,23,25,21,27,0,0,21,0,1,0,0,0,3,0,0,0,0],"split_type":[0,0,0,0,0,0,0,0,0,0,0,0,0,0,0,0,0,0,0,0,0],"sum_hessian":[1.1768224E4,4.457149E3,7.311074E3,2.4999115E1,4.43215E3,5.497938E3,1.8131364E3,3.9192433E0,4.428231E3,5.447292E3,5.0645657E1,3.631926E2,1.4499438E3,1.2758272E0,2.6434162E0,4.2673485E1,7.9721684E0,1.4468434E3,3.1004384E0,5.798283E0,2.1738853E0],"tree_param":{"num_deleted":"0","num_feature":"60","num_nodes":"21","size_leaf_vector":"1"}},{"base_weights":[-1.716127E-4,1.1785733E0,-7.188078E-1,-1.1516382E-1,1.1920451E0,-1.1901518E0,7.102976E-1,1.22550465E-1,1.19301654E-1,-1.19266085E-1,-9.02357E-1,-1.19054176E-1,1.1870584E0,-8.480284E-2,7.0716254E-2,-1.16851784E-1,4.7091207E-1,1.19242325E-1,-9.37855E-2,1.0363314E-1,-8.664755E-2],"categories":[],"categories_nodes":[],"categories_segments":[],"categories_sizes":[],"default_left":[0,0,0,0,0,0,0,0,0,0,0,0,0,0,0,0,0,0,0,0,0],"id":11,"left_children":[1,3,5,-1,7,9,11,13,-1,-1,15,-1,17,-1,-1,-1,19,-1,-1,-1,-1],"loss_changes":[9.20245E3,1.3053955E2,4.5469766E3,0E0,4.104492E0,2.5888672E0,1.5189177E3,3.338776E0,0E0,0E0,1.8085209E1,0E0,1.638501E1,0E0,0E0,0E0,7.3265047E0,0E0,0E0,0E0,0E0],"parents":[2147483647,0,0,1,1,2,2,4,4,5,5,6,6,7,7,10,10,12,12,16,16],"right_children":[2,4,6,-1,8,10,12,14,-1,-1,16,-1,18,-1,-1,-1,20,-1,-1,-1,-1],"split_conditions":[3.403202E-4,5.457741E-6,9.9998534E-1,-1.1516382E-1,7.206785E-6,7.076515E-3,1.0600828E-5,9.999854E-1,1.19301654E-1,-1.19266085E-1,1.7226346E-5,-1.19054176E-1,3.5361766E-11,-8.480284E-2,7.0716254E-2,-1.16851784E-1,1.9876632E-5,1.19242325E-1,-9.37855E-2,1.0363314E-1,-8.664755E-2],"split_indices":[0,56,40,0,23,25,21,27,0,0,21,0,1,0,0,0,3,0,0,0,0],"split_type":[0,0,0,0,0,0,0,0,0,0,0,0,0,0,0,0,0,0,0,0,0],"sum_hessian":[1.0861619E4,4.113614E3,6.7480054E3,2.3160059E1,4.0904539E3,5.0745103E3,1.673495E3,3.8273242E0,4.0866265E3,5.0275366E3,4.6973854E1,3.352722E2,1.3382228E3,1.269351E0,2.5579731E0,3.947256E1,7.501296E0,1.3352904E3,2.93236E0,5.430502E0,2.070794E0],"tree_param":{"num_deleted":"0","num_feature":"60","num_nodes":"21","size_leaf_vector":"1"}},{"base_weights":[-1.9546889E-4,1.1569624E0,-7.056314E-1,-1.1268387E-1,1.1702422E0,-1.1682993E0,6.9715106E-1,1.10022426E-1,1.171265E-1,-1.1708001E-1,-8.8173014E-1,-1.16852365E-1,1.1652309E0,-8.038864E-2,6.729763E-1,-1.144851E-1,4.514135E-1,1.170634E-1,-9.071796E-2,7.785748E-2,2.1145374E-2,1.0066235E-1,-8.3670326E-2],"categories":[],"categories_nodes":[],"categories_segments":[],"categories_sizes":[],"default_left":[0,0,0,0,0,0,0,0,0,0,0,0,0,0,0,0,0,0,0,0,0,0,0],"id":12,"left_children":[1,3,5,-1,7,9,11,13,-1,-1,15,-1,17,-1,19,-1,21,-1,-1,-1,-1,-1,-1],"loss_changes":[8.166544E3,1.16234375E2,4.034688E3,0E0,3.9560547E0,2.317871E0,1.3480918E3,2.9769976E0,0E0,0E0,1.6121632E1,0E0,1.4872192E1,0E0,4.6910048E-3,0E0,6.5995E0,0E0,0E0,0E0,0E0,0E0,0E0],"parents":[2147483647,0,0,1,1,2,2,4,4,5,5,6,6,7,7,10,10,12,12,14,14,16,16],"right_children":[2,4,6,-1,8,10,12,14,-1,-1,16,-1,18,-1,20,-1,22,-1,-1,-1,-1,-1,-1],"split_conditions":[3.403202E-4,5.457741E-6,9.9998534E-1,-1.1268387E-1,7.206785E-6,7.076515E-3,1.0600828E-5,9.999854E-1,1.171265E-1,-1.1708001E-1,1.7226346E-5,-1.16852365E-1,3.5361766E-11,-8.038864E-2,9.9998754E-1,-1.144851E-1,1.9876632E-5,1.170634E-1,-9.071796E-2,7.785748E-2,2.1145374E-2,1.0066235E-1,-8.3670326E-2],"split_indices":[0,56,40,0,23,25,21,27,0,0,21,0,1,0,27,0,3,0,0,0,0,0,0],"split_type":[0,0,0,0,0,0,0,0,0,0,0,0,0,0,0,0,0,0,0,0,0,0,0],"sum_hessian":[1.0002332E4,3.7880256E3,6.2143066E3,2.1414484E1,3.766611E3,4.6731636E3,1.5411432E3,3.734801E0,3.7628765E3,4.6296772E3,4.3486355E1,3.0880603E2,1.232337E3,1.260502E0,2.474299E0,3.6436226E1,7.0501313E0,1.2295665E3,2.7705524E0,1.4545269E0,1.0197722E0,5.079341E0,1.9707903E0],"tree_param":{"num_deleted":"0","num_feature":"60","num_nodes":"23","size_leaf_vector":"1"}},{"base_weights":[-2.1746907E-4,1.1380894E0,-6.94125E-1,-1.10446416E-1,1.151211E0,-1.1492116E0,6.856465E-1,1.0513719E-1,1.15228616E-1,-1.1517119E-1,-8.6301917E-1,-1.14925645E-1,1.1461524E0,-7.628468E-2,6.476897E-1,-1.1237337E-1,4.3308115E-1,1.1516116E-1,-8.7844454E-2,7.515899E-2,2.0175552E-2,9.789346E-2,-8.08794E-2],"categories":[],"categories_nodes":[],"categories_segments":[],"categories_sizes":[],"default_left":[0,0,0,0,0,0,0,0,0,0,0,0,0,0,0,0,0,0,0,0,0,0,0],"id":13,"left_children":[1,3,5,-1,7,9,11,13,-1,-1,15,-1,17,-1,19,-1,21,-1,-1,-1,-1,-1,-1],"loss_changes":[7.263013E3,1.03745605E2,3.5878613E3,0E0,3.772461E0,2.0800781E0,1.1990798E3,2.6864157E0,0E0,0E0,1.4406979E1,0E0,1.354126E1,0E0,6.1495304E-3,0E0,5.9576316E0,0E0,0E0,0E0,0E0,0E0,0E0],"parents":[2147483647,0,0,1,1,2,2,4,4,5,5,6,6,7,7,10,10,12,12,14,14,16,16],"right_children":[2,4,6,-1,8,10,12,14,-1,-1,16,-1,18,-1,20,-1,22,-1,-1,-1,-1,-1,-1],"split_conditions":[3.403202E-4,5.457741E-6,9.9998534E-1,-1.10446416E-1,7.206785E-6,7.076515E-3,1.0600828E-5,9.999854E-1,1.15228616E-1,-1.1517119E-1,1.7226346E-5,-1.14925645E-1,3.5361766E-11,-7.628468E-2,9.9998754E-1,-1.1237337E-1,1.9876632E-5,1.1516116E-1,-8.7844454E-2,7.515899E-2,2.0175552E-2,9.789346E-2,-8.08794E-2],"split_indices":[0,56,40,0,23,25,21,27,0,0,21,0,1,0,27,0,3,0,0,0,0,0,0],"split_type":[0,0,0,0,0,0,0,0,0,0,0,0,0,0,0,0,0,0,0,0,0,0,0],"sum_hessian":[9.193088E3,3.4814207E3,5.7116675E3,1.9768278E1,3.4616523E3,4.2951694E3,1.4164983E3,3.6553464E0,3.457997E3,4.254974E3,4.0195057E1,2.838784E2,1.1326199E3,1.2498244E0,2.4055219E0,3.3574444E1,6.6206126E0,1.130004E3,2.615785E0,1.3950541E0,1.0104678E0,4.746198E0,1.8744142E0],"tree_param":{"num_deleted":"0","num_feature":"60","num_nodes":"23","size_leaf_vector":"1"}},{"base_weights":[-2.4104958E-4,1.1215305E0,-6.840328E-1,-1.08408265E-1,1.1345237E0,-1.1324648E0,6.7553043E-1,1.0081165E-1,1.13565706E-1,-1.1349714E-1,-8.4587973E-1,-1.1323147E-1,1.1294011E0,-7.24552E-2,6.238069E-1,-1.10473275E-1,4.1573635E-1,1.1349332E-1,-8.5136265E-2,7.262414E-2,1.9251889E-2,9.52906E-2,-7.825058E-2],"categories":[],"categories_nodes":[],"categories_segments":[],"categories_sizes":[],"default_left":[0,0,0,0,0,0,0,0,0,0,0,0,0,0,0,0,0,0,0,0,0,0,0],"id":14,"left_children":[1,3,5,-1,7,9,11,13,-1,-1,15,-1,17,-1,19,-1,21,-1,-1,-1,-1,-1,-1],"loss_changes":[6.471649E3,9.279834E1,3.1965269E3,0E0,3.6069336E0,1.871582E0,1.0685635E3,2.4274917E0,0E0,0E0,1.2903452E1,0E0,1.2364624E1,0E0,7.6874495E-3,0E0,5.3889055E0,0E0,0E0,0E0,0E0,0E0,0E0],"parents":[2147483647,0,0,1,1,2,2,4,4,5,5,6,6,7,7,10,10,12,12,14,14,16,16],"right_children":[2,4,6,-1,8,10,12,14,-1,-1,16,-1,18,-1,20,-1,22,-1,-1,-1,-1,-1,-1],"split_conditions":[3.403202E-4,5.457741E-6,9.9998534E-1,-1.08408265E-1,7.206785E-6,7.076515E-3,1.0600828E-5,9.999854E-1,1.13565706E-1,-1.1349714E-1,1.7226346E-5,-1.1323147E-1,3.5361766E-11,-7.24552E-2,9.9998754E-1,-1.10473275E-1,1.9876632E-5,1.1349332E-1,-8.5136265E-2,7.262414E-2,1.9251889E-2,9.52906E-2,-7.825058E-2],"split_indices":[0,56,40,0,23,25,21,27,0,0,21,0,1,0,27,0,3,0,0,0,0,0,0],"split_type":[0,0,0,0,0,0,0,0,0,0,0,0,0,0,0,0,0,0,0,0,0,0,0],"sum_hessian":[8.434973E3,3.1941982E3,5.240775E3,1.8224022E1,3.175974E3,3.9410457E3,1.2997291E3,3.5765307E0,3.1723977E3,3.9039402E3,3.7105324E1,2.6052365E2,1.0392054E3,1.2377652E0,2.3387654E0,3.089149E1,6.2138324E0,1.0367369E3,2.4685266E0,1.3372647E0,1.0015007E0,4.431808E0,1.7820243E0],"tree_param":{"num_deleted":"0","num_feature":"60","num_nodes":"23","size_leaf_vector":"1"}}]},"name":"gbtree"},"learner_model_param":{"base_score":"5.0042534E-1","boost_from_average":"1","num_class":"0","num_feature":"60","num_target":"1"},"objective":{"name":"binary:logistic","reg_loss_param":{"scale_pos_weight":"1"}}},"version":[2,1,4]}