{"learner":{"attributes":{},"feature_names":["dst_port","duration","fwd_packets_count","bwd_packets_count","fwd_total_payload_bytes","bwd_total_payload_bytes","fwd_payload_bytes_max","fwd_payload_bytes_min","fwd_payload_bytes_mean","fwd_payload_bytes_std","bwd_payload_bytes_max","bwd_payload_bytes_min","bwd_payload_bytes_mean","bwd_payload_bytes_std","payload_bytes_min","payload_bytes_max","payload_bytes_mean","payload_bytes_std","fwd_avg_segment_size","bwd_avg_segment_size","fwd_total_header_bytes","bwd_total_header_bytes","bytes_rate","packets_rate","fwd_packets_rate","bwd_packets_rate","down_up_rate","packets_IAT_mean","packet_IAT_std","packet_IAT_max","packet_IAT_min","fwd_packets_IAT_total","fwd_packets_IAT_mean","fwd_packets_IAT_std","fwd_packets_IAT_max","fwd_packets_IAT_min","bwd_packets_IAT_total","bwd_packets_IAT_mean","bwd_packets_IAT_std","bwd_packets_IAT_max","bwd_packets_IAT_min","subflow_fwd_packets","subflow_fwd_bytes","subflow_bwd_packets","subflow_bwd_bytes","active_mean","active_std","active_max","active_min","idle_mean","idle_std","idle_max","idle_min","fin_flag_counts","syn_flag_counts","rst_flag_counts","ack_flag_counts","psh_flag_counts","fwd_ack_flag_counts","bwd_rst_flag_counts"],"feature_types":[],"gradient_booster":{"model":{"gbtree_model_param":{"num_parallel_tree":"1","num_trees":"5"},"iteration_indptr":[0,1,2,3,4,5],"tree_info":[0,0,0,0,0],"trees":[{"base_weights":[9.1244324E-8,1.97533E0,-1.205731E0,-1.954604E-1,1.9972384E0,-1.9972013E0,1.1921966E0,1.9977693E-1,-6.676122E-2,-2.0010538E-1,-1.5519782E0,-1.9984572E-1,1.9901855E0,-1.9740932E-1,9.2150706E-1,1.9974878E-1,-1.6377567E-1,1.7984699E-1,-1.501277E-1],"categories":[],"categories_nodes":[],"categories_segments":[],"categories_sizes":[],"default_left":[0,0,0,0,0,0,0,0,0,0,0,0,0,0,0,0,0,0,0],"id":0,"left_children":[1,3,5,-1,7,9,11,-1,-1,-1,13,-1,15,-1,17,-1,-1,-1,-1],"loss_changes":[4.759858E4,6.560996E2,2.355516E4,0E0,1.19921875E1,1.2902344E1,7.8466143E3,0E0,0E0,0E0,9.004512E1,0E0,6.856152E1,0E0,3.0320974E1,0E0,0E0,0E0,0E0],"parents":[2147483647,0,0,1,1,2,2,4,4,5,5,6,6,10,10,12,12,14,14],"right_children":[2,4,6,-1,8,10,12,-1,-1,-1,14,-1,16,-1,18,-1,-1,-1,-1],"split_conditions":[3.403202E-4,5.457741E-6,9.9998534E-1,-1.954604E-1,9.742501E-4,7.076515E-3,1.0600828E-5,1.9977693E-1,-6.676122E-2,-2.0010538E-1,1.7226346E-5,-1.9984572E-1,3.5361766E-11,-1.9740932E-1,1.9876632E-5,1.9974878E-1,-1.6377567E-1,1.7984699E-1,-1.501277E-1],"split_indices":[0,56,40,0,28,25,21,0,0,0,21,0,1,0,3,0,0,0,0],"split_type":[0,0,0,0,0,0,0,0,0,0,0,0,0,0,0,0,0,0,0],"sum_hessian":[1.9982986E4,7.5739946E3,1.2408991E4,4.149997E1,7.5324946E3,9.329743E3,3.0792478E3,7.5312446E3,1.249999E0,9.246243E3,8.349994E1,6.157496E2,2.4634983E3,7.149995E1,1.1999991E1,2.4589983E3,4.4999967E0,8.999993E0,2.9999979E0],"tree_param":{"num_deleted":"0","num_feature":"60","num_nodes":"19","size_leaf_vector":"1"}},{"base_weights":[-1.3653646E-5,1.7965559E0,-1.0963606E0,-1.7805475E-1,1.8165148E0,-1.8159089E0,1.0841808E0,1.8170093E0,-6.3090555E-2,-1.8194029E-1,-1.4121233E0,-1.817271E-1,1.8100781E0,1.8171434E-1,5.5823755E-2,-1.7968796E-1,8.377369E-1,1.816798E-1,-1.5121363E-1,1.6492175E-1,-1.3946237E-1],"categories":[],"categories_nodes":[],"categories_segments":[],"categories_sizes":[],"default_left":[0,0,0,0,0,0,0,0,0,0,0,0,0,0,0,0,0,0,0,0,0],"id":1,"left_children":[1,3,5,-1,7,9,11,13,-1,-1,15,-1,17,-1,-1,-1,19,-1,-1,-1,-1],"loss_changes":[3.8973164E4,5.386035E2,1.928193E4,0E0,1.0171875E1,1.046875E1,6.425877E3,2.4609375E-1,0E0,0E0,7.3985565E1,0E0,5.721289E1,0E0,0E0,0E0,2.5686333E1,0E0,0E0,0E0,0E0],"parents":[2147483647,0,0,1,1,2,2,4,4,5,5,6,6,7,7,10,10,12,12,16,16],"right_children":[2,4,6,-1,8,10,12,14,-1,-1,16,-1,18,-1,-1,-1,20,-1,-1,-1,-1],"split_conditions":[3.403202E-4,5.457741E-6,9.9998534E-1,-1.7805475E-1,9.742501E-4,7.076515E-3,1.0600828E-5,9.9998754E-1,-6.3090555E-2,-1.8194029E-1,1.7226346E-5,-1.817271E-1,3.5361766E-11,1.8171434E-1,5.5823755E-2,-1.7968796E-1,1.9876632E-5,1.816798E-1,-1.5121363E-1,1.6492175E-1,-1.3946237E-1],"split_indices":[0,56,40,0,28,25,21,27,0,0,21,0,1,0,0,0,3,0,0,0,0],"split_type":[0,0,0,0,0,0,0,0,0,0,0,0,0,0,0,0,0,0,0,0,0],"sum_hessian":[1.9784713E4,7.497696E3,1.2287017E4,4.1112923E1,7.456583E3,9.23858E3,3.048436E3,7.4553345E3,1.2486782E0,9.155851E3,8.2729485E1,6.097456E2,2.4386904E3,7.4540967E3,1.2373998E0,7.08197E1,1.1909784E1,2.43422E3,4.4705772E0,8.926247E0,2.983538E0],"tree_param":{"num_deleted":"0","num_feature":"60","num_nodes":"21","size_leaf_vector":"1"}},{"base_weights":[-2.6340727E-5,1.662215E0,-1.0142108E0,-1.6483742E-1,1.6807176E0,-1.6797519E0,1.0029951E0,1.6811903E0,-5.9692707E-2,-1.682989E-1,-1.305787E0,-1.6811194E-1,1.6747099E0,1.6813123E-1,5.2931845E-2,-1.6629305E-1,7.709021E-1,1.6810153E-1,-1.4099632E-1,1.531819E-1,-1.305574E-1],"categories":[],"categories_nodes":[],"categories_segments":[],"categories_sizes":[],"default_left":[0,0,0,0,0,0,0,0,0,0,0,0,0,0,0,0,0,0,0,0,0],"id":2,"left_children":[1,3,5,-1,7,9,11,13,-1,-1,15,-1,17,-1,-1,-1,19,-1,-1,-1,-1],"loss_changes":[3.2493533E4,4.5016016E2,1.6072939E4,0E0,8.824219E0,8.699219E0,5.3582812E3,1.3085938E-1,0E0,0E0,6.1886475E1,0E0,4.8589844E1,0E0,0E0,0E0,2.2025E1,0E0,0E0,0E0,0E0],"parents":[2147483647,0,0,1,1,2,2,4,4,5,5,6,6,7,7,10,10,12,12,16,16],"right_children":[2,4,6,-1,8,10,12,14,-1,-1,16,-1,18,-1,-1,-1,20,-1,-1,-1,-1],"split_conditions":[3.403202E-4,5.457741E-6,9.9998534E-1,-1.6483742E-1,9.742501E-4,7.076515E-3,1.0600828E-5,9.9998754E-1,-5.9692707E-2,-1.682989E-1,1.7226346E-5,-1.6811194E-1,3.5361766E-11,1.6813123E-1,5.2931845E-2,-1.6629305E-1,1.9876632E-5,1.6810153E-1,-1.4099632E-1,1.531819E-1,-1.305574E-1],"split_indices":[0,56,40,0,28,25,21,27,0,0,21,0,1,0,0,0,3,0,0,0,0],"split_type":[0,0,0,0,0,0,0,0,0,0,0,0,0,0,0,0,0,0,0,0,0],"sum_hessian":[1.9272623E4,7.3027793E3,1.1969844E4,4.0098114E1,7.262681E3,9.000468E3,2.9693757E3,7.261436E3,1.2448821E0,8.919755E3,8.071293E1,5.9406E2,2.3753157E3,7.2602065E3,1.2295372E0,6.903902E1,1.1673908E1,2.3709243E3,4.3913636E0,8.73522E0,2.9386888E0],"tree_param":{"num_deleted":"0","num_feature":"60","num_nodes":"21","size_leaf_vector":"1"}},{"base_weights":[-4.0203635E-5,1.557863E0,-9.50424E-1,-1.5447356E-1,1.5752416E0,-1.5740365E0,9.3991995E-1,1.5757021E0,-5.6536973E-2,-1.5770833E-1,-1.2222767E0,-1.5753591E-1,1.5695459E0,1.5759608E-1,7.905107E-2,-1.5583318E-1,7.16091E-1,1.5755491E-1,-1.3250028E-1,1.4369112E-1,-1.2298944E-1],"categories":[],"categories_nodes":[],"categories_segments":[],"categories_sizes":[],"default_left":[0,0,0,0,0,0,0,0,0,0,0,0,0,0,0,0,0,0,0,0,0],"id":3,"left_children":[1,3,5,-1,7,9,11,13,-1,-1,15,-1,17,-1,-1,-1,19,-1,-1,-1,-1],"loss_changes":[2.7461898E4,3.8135938E2,1.3581797E4,0E0,7.779297E0,7.357422E0,4.5291055E3,1.71875E-1,0E0,0E0,5.2468567E1,0E0,4.1819824E1,0E0,0E0,0E0,1.9067198E1,0E0,0E0,0E0,0E0],"parents":[2147483647,0,0,1,1,2,2,4,4,5,5,6,6,7,7,10,10,12,12,16,16],"right_children":[2,4,6,-1,8,10,12,14,-1,-1,16,-1,18,-1,-1,-1,20,-1,-1,-1,-1],"split_conditions":[3.403202E-4,5.457741E-6,9.9998534E-1,-1.5447356E-1,9.742501E-4,7.076515E-3,1.0600828E-5,9.9998534E-1,-5.6536973E-2,-1.5770833E-1,1.7226346E-5,-1.5753591E-1,3.5361766E-11,1.5759608E-1,7.905107E-2,-1.5583318E-1,1.9876632E-5,1.5755491E-1,-1.3250028E-1,1.4369112E-1,-1.2298944E-1],"split_indices":[0,56,40,0,28,25,21,27,0,0,21,0,1,0,0,0,3,0,0,0,0],"split_type":[0,0,0,0,0,0,0,0,0,0,0,0,0,0,0,0,0,0,0,0,0],"sum_hessian":[1.8545744E4,7.026695E3,1.1519049E4,3.8649834E1,6.988045E3,8.661758E3,2.8572915E3,6.9868057E3,1.239038E0,8.583923E3,7.78345E1,5.717435E2,2.285548E3,6.983498E3,3.3077257E0,6.650123E1,1.1333271E1,2.2812725E3,4.2755876E0,8.460854E0,2.8724167E0],"tree_param":{"num_deleted":"0","num_feature":"60","num_nodes":"21","size_leaf_vector":"1"}},{"base_weights":[-5.314675E-5,1.4747515E0,-8.996361E-1,-1.4614221E-1,1.4912416E0,-1.4898673E0,8.8966966E-1,1.491697E0,-5.3597342E-2,-1.4927699E-1,-1.1550163E0,-1.4911163E-1,1.4857744E0,1.4919512E-1,7.412941E-2,-1.4745818E-1,6.700949E-1,1.4915551E-1,-1.2530035E-1,1.3584317E-1,-1.1645706E-1],"categories":[],"categories_nodes":[],"categories_segments":[],"categories_sizes":[],"default_left":[0,0,0,0,0,0,0,0,0,0,0,0,0,0,0,0,0,0,0,0,0],"id":4,"left_children":[1,3,5,-1,7,9,11,13,-1,-1,15,-1,17,-1,-1,-1,19,-1,-1,-1,-1],"loss_changes":[2.3455709E4,3.2649512E2,1.1598776E4,0E0,6.9472656E0,6.3007812E0,3.8688074E3,1.6601562E-1,0E0,0E0,4.4954437E1,0E0,3.6373535E1,0E0,0E0,0E0,1.6635197E1,0E0,0E0,0E0,0E0],"parents":[2147483647,0,0,1,1,2,2,4,4,5,5,6,6,7,7,10,10,12,12,16,16],"right_children":[2,4,6,-1,8,10,12,14,-1,-1,16,-1,18,-1,-1,-1,20,-1,-1,-1,-1],"split_conditions":[3.403202E-4,5.457741E-6,9.9998534E-1,-1.4614221E-1,9.742501E-4,7.076515E-3,1.0600828E-5,9.9998534E-1,-5.3597342E-2,-1.4927699E-1,1.7226346E-5,-1.4911163E-1,3.5361766E-11,1.4919512E-1,7.412941E-2,-1.4745818E-1,1.9876632E-5,1.4915551E-1,-1.2530035E-1,1.3584317E-1,-1.1645706E-1],"split_indices":[0,56,40,0,28,25,21,27,0,0,21,0,1,0,0,0,3,0,0,0,0],"split_type":[0,0,0,0,0,0,0,0,0,0,0,0,0,0,0,0,0,0,0,0,0],"sum_hessian":[1.7677617E4,6.697267E3,1.0980351E4,3.691373E1,6.6603535E3,8.256859E3,2.7234907E3,6.659122E3,1.2315211E0,8.182477E3,7.438253E1,5.4506226E2,2.1784285E3,6.6558774E3,3.244303E0,6.3462673E1,1.0919861E1,2.1742947E3,4.1338353E0,8.129413E0,2.7904482E0],"tree_param":{"num_deleted":"0","num_feature":"60","num_nodes":"21","size_leaf_vector":"1"}}]},"name":"gbtree"},"learner_model_param":{"base_score":"5.0042534E-1","boost_from_average":"1","num_class":"0","num_feature":"60","num_target":"1"},"objective":{"name":"binary:logistic","reg_loss_param":{"scale_pos_weight":"1"}}},"version":[2,1,4]}